400 16
8.130640 0.000546 8.405299 0.000378 8.151292 0.000531 8.436150 0.000365 8.340547 0.000414 8.500685 0.000327 8.292777 0.000449 8.470217 0.000346 1
7.946100 0.000803 8.278972 0.000517 7.942345 0.000808 8.281358 0.000514 8.180458 0.000591 8.380820 0.000438 8.100987 0.000664 8.336905 0.000474 1
8.155370 0.000619 8.455778 0.000397 8.145399 0.000619 8.471152 0.000381 8.382580 0.000451 8.560509 0.000315 8.284944 0.000512 8.501588 0.000352 1
7.987161 0.000764 8.340205 0.000460 7.974903 0.000764 8.350817 0.000456 8.247756 0.000529 8.474249 0.000366 8.126745 0.000641 8.404044 0.000424 1
8.094583 0.000538 8.366448 0.000385 8.090782 0.000544 8.375682 0.000385 8.285828 0.000427 8.449359 0.000348 8.239804 0.000462 8.421124 0.000365 1
7.960775 0.000791 8.276306 0.000515 7.959407 0.000791 8.284410 0.000507 8.186997 0.000587 8.369100 0.000441 8.114832 0.000654 8.331008 0.000472 1
7.993684 0.000589 8.382118 0.000363 8.006317 0.000579 8.387667 0.000358 8.260361 0.000424 8.516642 0.000300 8.175641 0.000475 8.464021 0.000323 1
8.142776 0.000467 8.428515 0.000332 8.130915 0.000476 8.434507 0.000332 8.336077 0.000372 8.515986 0.000295 8.298288 0.000394 8.490484 0.000308 1
8.151590 0.000452 8.470393 0.000300 8.131849 0.000458 8.469178 0.000300 8.362364 0.000348 8.562159 0.000263 8.313386 0.000367 8.535453 0.000271 1
7.905497 0.000598 8.302608 0.000369 7.896281 0.000604 8.301908 0.000373 8.152315 0.000452 8.443427 0.000308 8.100516 0.000474 8.406294 0.000322 1
6.469541 0.009244 6.877598 0.005914 6.692321 0.007037 7.154597 0.003802 6.833755 0.005723 7.243432 0.002855 6.940157 0.004874 7.301316 0.002366 2
6.406475 0.010195 6.815892 0.006378 6.536913 0.008255 7.002628 0.004532 6.737913 0.006115 7.126136 0.003084 6.740414 0.006151 7.121430 0.003077 2
6.404008 0.009767 6.808255 0.006127 6.577021 0.007640 7.050293 0.004056 6.758551 0.005803 7.164237 0.002832 6.771572 0.005568 7.162230 0.002709 2
6.415116 0.009528 6.814684 0.006207 6.642642 0.007043 7.124275 0.003675 6.826996 0.005638 7.234015 0.002675 6.855661 0.005274 7.249936 0.002427 2
6.507559 0.009066 6.919662 0.005725 6.709160 0.007183 7.160718 0.004050 6.866103 0.005816 7.256856 0.003053 6.946235 0.005152 7.303672 0.002556 2
6.391693 0.010329 6.798786 0.006448 6.540272 0.008196 7.009252 0.004415 6.730668 0.006158 7.123835 0.003078 6.739390 0.006061 7.121323 0.002988 2
6.447574 0.009801 6.849014 0.006113 6.621561 0.007994 7.080733 0.004476 6.820898 0.006031 7.215467 0.003010 6.842631 0.005730 7.223736 0.002845 2
6.518074 0.010174 6.928478 0.006440 6.678862 0.008311 7.129763 0.004728 6.891904 0.006042 7.270267 0.003023 6.932896 0.005820 7.295828 0.002913 2
6.434639 0.011251 6.833501 0.007010 6.575953 0.009038 7.042636 0.004939 6.789153 0.006455 7.173726 0.003040 6.752417 0.006989 7.151047 0.003380 2
6.483009 0.009675 6.884843 0.006058 6.686980 0.007552 7.145307 0.004235 6.893989 0.005511 7.286284 0.002695 6.893337 0.005563 7.285541 0.002699 2
6.245229 0.010317 6.651177 0.006129 6.363202 0.009279 6.803463 0.005437 6.558288 0.006376 6.929656 0.003368 6.573976 0.006487 6.939417 0.003388 3
6.264928 0.010911 6.669046 0.006733 6.354897 0.009484 6.795446 0.005472 6.546955 0.006918 6.912688 0.003684 6.537849 0.006898 6.901263 0.003662 3
6.229141 0.010917 6.620845 0.007037 6.331529 0.009349 6.782181 0.005410 6.515270 0.006853 6.882693 0.003722 6.515406 0.006949 6.878062 0.003791 3
6.222589 0.012021 6.632480 0.006988 6.303980 0.011000 6.748821 0.006565 6.543217 0.007499 6.905814 0.003822 6.496677 0.007782 6.868274 0.004086 3
6.287084 0.010375 6.696755 0.006164 6.447884 0.008770 6.904404 0.004860 6.635222 0.006125 7.007953 0.003105 6.639688 0.006219 7.017848 0.003139 3
6.275316 0.010622 6.681288 0.006511 6.348968 0.009453 6.789300 0.005531 6.543412 0.006944 6.908851 0.003699 6.546973 0.006782 6.907524 0.003607 3
6.283383 0.011600 6.686358 0.007068 6.446952 0.009271 6.908179 0.005141 6.634172 0.006928 7.002495 0.003564 6.612842 0.006931 6.988040 0.003590 3
6.322586 0.011994 6.714479 0.007155 6.471273 0.009546 6.904233 0.005348 6.613259 0.007525 6.969361 0.003881 6.669778 0.006649 7.008199 0.003476 3
6.140101 0.013247 6.533265 0.008031 6.250569 0.011154 6.691000 0.006391 6.403329 0.008325 6.773558 0.004247 6.442953 0.007398 6.792104 0.004070 3
6.301340 0.013200 6.705462 0.007897 6.460787 0.011099 6.910964 0.006203 6.609098 0.008773 6.999516 0.004265 6.648905 0.007729 7.004696 0.003729 3
8.611792 0.000268 8.700099 0.000237 7.883061 0.000805 7.938465 0.000751 8.637976 0.000253 8.690692 0.000240 8.648650 0.000250 8.706382 0.000231 4
8.450693 0.000409 8.538379 0.000386 7.775314 0.001239 7.897882 0.001009 8.485486 0.000356 8.536255 0.000377 8.492122 0.000370 8.555254 0.000340 4
8.420087 0.000384 8.499110 0.000385 7.693469 0.001388 7.770140 0.001197 8.449824 0.000350 8.502046 0.000386 8.454277 0.000363 8.511936 0.000345 4
8.388332 0.000604 8.532449 0.000447 7.712368 0.001749 7.741566 0.001582 8.445924 0.000509 8.537939 0.000430 8.438254 0.000541 8.544940 0.000413 4
8.623295 0.000260 8.696900 0.000234 7.953907 0.000671 8.037506 0.000590 8.654530 0.000246 8.692269 0.000236 8.665151 0.000242 8.716384 0.000225 4
8.461660 0.000391 8.544025 0.000380 7.763807 0.001218 7.886030 0.001009 8.496524 0.000342 8.543017 0.000372 8.500544 0.000358 8.559502 0.000332 4
8.512375 0.000515 8.600081 0.000399 7.908236 0.001195 7.978440 0.001038 8.569675 0.000427 8.604091 0.000379 8.556664 0.000458 8.624807 0.000367 4
8.602240 0.000266 8.687464 0.000238 7.982144 0.000668 8.088036 0.000564 8.619000 0.000255 8.690555 0.000238 8.635980 0.000250 8.696788 0.000231 4
8.406962 0.000430 8.472459 0.000453 7.737065 0.001367 7.841956 0.001142 8.451682 0.000388 8.484146 0.000415 8.451486 0.000388 8.492665 0.000404 4
8.551494 0.000387 8.609356 0.000342 7.978367 0.000956 8.083860 0.000780 8.613793 0.000336 8.624879 0.000334 8.603073 0.000357 8.645574 0.000319 4
8.308508 0.000415 8.398245 0.000395 7.505110 0.001761 7.562499 0.001633 8.342140 0.000395 8.404375 0.000380 8.345636 0.000394 8.405585 0.000386 5
8.108653 0.000688 8.185099 0.000705 7.457542 0.002121 7.469390 0.002135 8.145078 0.000598 8.194313 0.000668 8.148874 0.000615 8.201381 0.000626 5
8.019998 0.000763 8.114825 0.000746 7.236047 0.002930 7.303157 0.002745 8.054523 0.000697 8.122157 0.000679 8.055424 0.000684 8.124195 0.000721 5
8.298211 0.000514 8.387486 0.000447 7.632397 0.001565 7.729252 0.001369 8.337393 0.000470 8.402757 0.000413 8.332586 0.000471 8.396500 0.000436 5
8.465126 0.000331 8.544793 0.000307 7.874879 0.000846 7.831680 0.000942 8.500522 0.000316 8.555660 0.000292 8.506549 0.000314 8.559133 0.000289 5
8.114863 0.000624 8.181654 0.000684 7.464500 0.002139 7.463287 0.002172 8.146323 0.000561 8.190578 0.000651 8.151184 0.000571 8.198058 0.000606 5
8.388369 0.000419 8.440349 0.000389 7.833967 0.001040 7.841892 0.001008 8.437293 0.000372 8.457760 0.000365 8.435147 0.000376 8.462124 0.000361 5
8.534022 0.000294 8.608358 0.000265 7.923582 0.000746 7.943687 0.000728 8.563111 0.000281 8.620799 0.000254 8.566649 0.000281 8.622317 0.000252 5
8.186058 0.000545 8.254751 0.000602 7.527989 0.001915 7.568418 0.001824 8.222452 0.000497 8.268904 0.000570 8.230201 0.000502 8.271983 0.000538 5
8.447335 0.000358 8.468279 0.000369 7.860240 0.000935 7.897640 0.000874 8.482621 0.000329 8.467935 0.000362 8.479667 0.000335 8.495856 0.000335 5
5.484734 0.017574 5.763488 0.014821 5.578306 0.016817 5.884735 0.013453 5.662472 0.015654 5.931962 0.012914 5.725592 0.015088 5.996828 0.012203 6
5.709962 0.017217 6.018140 0.013985 5.737676 0.016659 6.052744 0.013189 5.881704 0.015061 6.170008 0.011878 5.916834 0.014783 6.201763 0.011601 6
5.120314 0.025225 5.356642 0.021759 5.156462 0.024910 5.414541 0.020970 5.267579 0.023159 5.483816 0.019919 5.282678 0.022581 5.490887 0.019291 6
5.305713 0.027072 5.571701 0.022584 5.304516 0.026754 5.584876 0.021952 5.429100 0.024867 5.668982 0.020771 5.479867 0.023830 5.719085 0.019278 6
5.926794 0.012221 6.242365 0.009800 5.919985 0.012306 6.242079 0.009707 6.108332 0.010753 6.398536 0.008517 6.094723 0.010831 6.380106 0.008538 6
5.683479 0.017255 5.985386 0.013983 5.728740 0.016535 6.046760 0.012955 5.867778 0.014967 6.159210 0.011744 5.895770 0.014785 6.180894 0.011508 6
6.132130 0.014033 6.463087 0.010897 6.168355 0.013725 6.527633 0.010443 6.368312 0.011826 6.684279 0.008681 6.318589 0.012004 6.629643 0.009111 6
6.070484 0.010126 6.376417 0.008109 6.096350 0.009894 6.402747 0.007918 6.302374 0.008496 6.580385 0.006644 6.229477 0.008965 6.515075 0.007168 6
5.690460 0.016193 5.982168 0.013320 5.683260 0.016142 5.975917 0.013139 5.857235 0.014306 6.119849 0.011616 5.849554 0.014362 6.111380 0.011772 6
5.713173 0.022577 6.002788 0.018624 5.778616 0.021633 6.102390 0.017077 5.918554 0.019529 6.201894 0.015579 5.921889 0.019396 6.196884 0.015513 6
7.517716 0.002392 7.930126 0.001457 7.683887 0.001975 8.066761 0.001110 7.870271 0.001546 8.167944 0.000826 7.801685 0.001730 8.120535 0.000994 7
7.532915 0.002636 7.932125 0.001676 7.608474 0.002441 7.992854 0.001472 7.828231 0.001907 8.112039 0.001115 7.743795 0.002149 8.062063 0.001314 7
7.450341 0.003552 7.838812 0.002343 7.519169 0.003358 7.904155 0.002078 7.724297 0.002760 8.029351 0.001626 7.686202 0.002762 8.002426 0.001676 7
7.564527 0.002377 7.956547 0.001447 7.583668 0.002428 7.977576 0.001514 7.799255 0.001901 8.111385 0.001136 7.782828 0.001907 8.097425 0.001154 7
7.270080 0.003668 7.685356 0.002439 7.427244 0.003256 7.815917 0.002046 7.617901 0.002673 7.929860 0.001620 7.559421 0.002770 7.889789 0.001751 7
7.528654 0.002570 7.931020 0.001613 7.622433 0.002359 8.002138 0.001396 7.842448 0.001812 8.126063 0.001009 7.743183 0.002086 8.067754 0.001272 7
7.595202 0.001949 8.004433 0.001220 7.679311 0.001864 8.070121 0.001144 7.843509 0.001544 8.157140 0.000933 7.873733 0.001456 8.177837 0.000849 7
7.391357 0.002636 7.804422 0.001786 7.577092 0.002233 7.955738 0.001393 7.768235 0.001845 8.065397 0.001141 7.650840 0.002072 7.983693 0.001313 7
7.595369 0.001548 8.011099 0.000953 7.670654 0.001424 8.066765 0.000865 7.886413 0.001117 8.194976 0.000675 7.814675 0.001256 8.140982 0.000774 7
7.629426 0.001110 8.042384 0.000686 7.701114 0.001045 8.105428 0.000637 7.885374 0.000843 8.205205 0.000537 7.901336 0.000832 8.222168 0.000522 7
7.312603 0.001541 7.694216 0.000980 7.374714 0.001450 7.748486 0.000918 7.549643 0.001205 7.854566 0.000776 7.565055 0.001165 7.849886 0.000774 8
7.059928 0.002134 7.436560 0.001413 7.136879 0.001952 7.502292 0.001263 7.330328 0.001583 7.621880 0.001061 7.282987 0.001669 7.575186 0.001136 8
6.922012 0.002751 7.281617 0.001860 6.982011 0.002574 7.347513 0.001705 7.176989 0.002123 7.472522 0.001410 7.132351 0.002178 7.417040 0.001534 8
6.349916 0.005816 6.689723 0.004235 6.475557 0.005243 6.824514 0.003554 6.654691 0.004390 6.926810 0.003033 6.557796 0.004799 6.840946 0.003439 8
7.278957 0.001680 7.680295 0.001028 7.379824 0.001520 7.748304 0.000950 7.534344 0.001284 7.843346 0.000820 7.553876 0.001206 7.845321 0.000789 8
7.040988 0.002180 7.414564 0.001460 7.115686 0.001992 7.472264 0.001311 7.304689 0.001635 7.588349 0.001098 7.266167 0.001701 7.549857 0.001169 8
6.589675 0.004271 6.948004 0.003034 6.710033 0.003802 7.069782 0.002571 6.898341 0.003198 7.182031 0.002208 6.806921 0.003395 7.110491 0.002428 8
7.410756 0.001205 7.821862 0.000745 7.500633 0.001109 7.891666 0.000688 7.698206 0.000894 8.003735 0.000579 7.667505 0.000892 7.988193 0.000587 8
7.180875 0.001690 7.569969 0.001074 7.233876 0.001579 7.616729 0.001013 7.444013 0.001275 7.740084 0.000850 7.387575 0.001320 7.702228 0.000890 8
6.528785 0.004412 6.898435 0.002969 6.646732 0.003928 7.013729 0.002565 6.824594 0.003249 7.124162 0.002131 6.767922 0.003412 7.071631 0.002329 8
7.846650 0.001534 8.182321 0.000906 7.480141 0.002225 7.873937 0.001471 7.976516 0.001275 8.253065 0.000767 7.882993 0.001450 8.182852 0.000899 9
7.951018 0.001283 8.286024 0.000698 7.583890 0.001889 7.975594 0.001229 8.080868 0.001054 8.356751 0.000581 7.992749 0.001194 8.295640 0.000698 9
7.757356 0.001827 8.097160 0.001037 7.397139 0.002655 7.779068 0.001826 7.886248 0.001517 8.165409 0.000864 7.797129 0.001760 8.101931 0.001060 9
7.397674 0.003974 7.754499 0.002657 7.108248 0.004803 7.490510 0.003426 7.549677 0.003402 7.856498 0.002189 7.465128 0.003635 7.793340 0.002422 9
7.981193 0.001248 8.294778 0.000736 7.614766 0.001827 7.999001 0.001223 8.095542 0.001058 8.349014 0.000648 8.019237 0.001174 8.308365 0.000725 9
7.975265 0.001220 8.304938 0.000665 7.603859 0.001804 7.988855 0.001175 8.099757 0.000997 8.371599 0.000557 8.006199 0.001157 8.307997 0.000676 9
6.988263 0.008925 7.330511 0.006463 6.734786 0.009876 7.101004 0.007356 7.130829 0.007776 7.435543 0.005424 7.063124 0.008052 7.378032 0.005736 9
8.122811 0.000831 8.436225 0.000455 7.752303 0.001375 8.142126 0.000833 8.242979 0.000695 8.490116 0.000395 8.159249 0.000801 8.445293 0.000451 9
8.000268 0.001101 8.315261 0.000625 7.716882 0.001537 8.091219 0.000974 8.138947 0.000886 8.389869 0.000507 8.063679 0.001015 8.342582 0.000594 9
6.963153 0.008239 7.300425 0.006216 6.758485 0.008829 7.117001 0.006739 7.112459 0.007153 7.403617 0.005269 7.062657 0.007384 7.366175 0.005550 9
7.588757 0.001751 7.990409 0.001191 7.424873 0.002018 7.817025 0.001512 7.724100 0.001593 8.079710 0.001110 7.766406 0.001524 8.104459 0.001056 10
7.066198 0.005123 7.386113 0.004207 7.023051 0.005226 7.336912 0.004320 7.162818 0.004819 7.426214 0.004167 7.270030 0.004481 7.544817 0.003564 10
7.444543 0.002192 7.814322 0.001562 7.289480 0.002431 7.652547 0.001833 7.542472 0.001999 7.859698 0.001485 7.626166 0.001868 7.934353 0.001348 10
7.177897 0.006062 7.500309 0.005099 7.125399 0.006132 7.453203 0.005155 7.218890 0.005797 7.488933 0.005092 7.415894 0.005280 7.674543 0.004325 10
7.409358 0.002664 7.792620 0.002028 7.335270 0.002798 7.703923 0.002212 7.522130 0.002524 7.837651 0.001990 7.638997 0.002242 7.942674 0.001637 10
7.020705 0.005235 7.343034 0.004315 6.980077 0.005295 7.293483 0.004442 7.133780 0.004860 7.405794 0.004183 7.219349 0.004598 7.503886 0.003685 10
7.431863 0.006255 7.754268 0.005367 7.392566 0.006233 7.721557 0.005180 7.522494 0.005929 7.792970 0.005111 7.662883 0.005464 7.927235 0.004489 10
7.617845 0.001357 8.003826 0.000909 7.490417 0.001522 7.876096 0.001076 7.755791 0.001191 8.090387 0.000802 7.819910 0.001137 8.126248 0.000747 10
7.549827 0.002733 7.862926 0.002093 7.440086 0.002877 7.766375 0.002225 7.624381 0.002551 7.900289 0.001991 7.737426 0.002304 7.992418 0.001703 10
7.541000 0.005219 7.892876 0.003956 7.407772 0.005405 7.755343 0.004224 7.601510 0.004947 7.908807 0.003847 7.746180 0.004337 8.036600 0.002893 10
7.282242 0.004931 7.620579 0.002554 6.741107 0.008120 7.187127 0.005527 7.115216 0.006031 7.504074 0.003481 7.457188 0.003745 7.692558 0.001944 11
7.901279 0.001771 8.168495 0.000852 7.204441 0.004291 7.651120 0.002877 7.811608 0.002115 8.119333 0.001044 8.014573 0.001407 8.198676 0.000727 11
7.718272 0.002443 8.023176 0.001128 7.082751 0.005192 7.531771 0.003426 7.637242 0.002833 7.978991 0.001387 7.841087 0.001939 8.059569 0.000942 11
7.654371 0.002833 7.931409 0.001391 6.924596 0.006256 7.351954 0.004322 7.646931 0.002908 7.921156 0.001477 7.725418 0.002475 7.951831 0.001283 11
7.347927 0.004469 7.704639 0.002277 6.980260 0.006461 7.421877 0.004131 7.072745 0.006023 7.472244 0.003835 7.584393 0.003079 7.815403 0.001548 11
7.838620 0.002140 8.108400 0.001009 7.165877 0.004877 7.607546 0.003295 7.740109 0.002565 8.055475 0.001283 7.952981 0.001680 8.138262 0.000839 11
8.111842 0.001183 8.360770 0.000550 7.204906 0.003221 7.644237 0.002210 8.095940 0.001267 8.351921 0.000596 8.176095 0.001011 8.375390 0.000509 11
7.411557 0.003775 7.799988 0.001986 7.147597 0.005075 7.594896 0.003151 7.138293 0.005005 7.539344 0.003266 7.694576 0.002542 7.957826 0.001294 11
7.896933 0.002169 8.166885 0.001060 7.202300 0.004793 7.642258 0.003280 7.818306 0.002498 8.117304 0.001321 8.004411 0.001776 8.203803 0.000867 11
8.236724 0.000896 8.478959 0.000434 7.276402 0.002563 7.720613 0.001804 8.227773 0.000912 8.479237 0.000446 8.286257 0.000799 8.489726 0.000410 11
8.382981 0.000352 8.406213 0.000329 8.383927 0.000351 8.389873 0.000333 8.421673 0.000327 8.298491 0.000407 8.418783 0.000335 8.321847 0.000393 12
8.377370 0.000347 8.389228 0.000332 8.374831 0.000346 8.371492 0.000339 8.416887 0.000325 8.312813 0.000393 8.412299 0.000338 8.326997 0.000381 12
8.485106 0.000300 8.492778 0.000289 8.485486 0.000297 8.480280 0.000294 8.522006 0.000284 8.399966 0.000346 8.513724 0.000293 8.426646 0.000330 12
8.467377 0.000309 8.485364 0.000298 8.463825 0.000306 8.464346 0.000303 8.502520 0.000292 8.380579 0.000353 8.500905 0.000300 8.409470 0.000339 12
8.240921 0.000426 8.273144 0.000392 8.244892 0.000427 8.255882 0.000399 8.290592 0.000387 8.177348 0.000486 8.281100 0.000407 8.204267 0.000469 12
8.386725 0.000343 8.397480 0.000329 8.384875 0.000342 8.381298 0.000333 8.424280 0.000321 8.318758 0.000390 8.423829 0.000333 8.334830 0.000375 12
8.384476 0.000336 8.406373 0.000323 8.390596 0.000332 8.393534 0.000327 8.435650 0.000318 8.314327 0.000380 8.430095 0.000325 8.335593 0.000367 12
8.173476 0.000440 8.196171 0.000415 8.168648 0.000450 8.182938 0.000421 8.219062 0.000415 8.106894 0.000507 8.210251 0.000431 8.135998 0.000486 12
8.330061 0.000363 8.340705 0.000350 8.319469 0.000364 8.323127 0.000360 8.367059 0.000344 8.252923 0.000417 8.361974 0.000363 8.260405 0.000411 12
8.304745 0.000379 8.309101 0.000372 8.299444 0.000377 8.289629 0.000378 8.341594 0.000361 8.217427 0.000440 8.341595 0.000372 8.235419 0.000426 12
7.200613 0.001692 7.552402 0.001222 7.287651 0.001544 7.662404 0.001080 7.434422 0.001333 7.759634 0.000966 7.445778 0.001338 7.764749 0.000987 13
7.136070 0.001845 7.504930 0.001295 7.139110 0.001831 7.508127 0.001296 7.377828 0.001471 7.719527 0.001049 7.276760 0.001587 7.586420 0.001194 13
6.839507 0.003444 7.170132 0.002622 6.876545 0.003300 7.219911 0.002514 7.049149 0.002890 7.346830 0.002250 7.026584 0.002919 7.335030 0.002279 13
7.048164 0.003660 7.413902 0.002764 7.054017 0.003611 7.416794 0.002713 7.247211 0.003108 7.566938 0.002385 7.232983 0.003129 7.556761 0.002397 13
6.586344 0.004393 6.912109 0.003419 6.612533 0.004337 6.934584 0.003414 6.819026 0.003696 7.120277 0.002856 6.721607 0.003971 6.985082 0.003265 13
7.063826 0.002084 7.421929 0.001483 7.077363 0.002071 7.442581 0.001477 7.304330 0.001677 7.638093 0.001219 7.216914 0.001787 7.522642 0.001354 13
6.905741 0.002822 7.242017 0.002111 6.936076 0.002762 7.288121 0.002014 7.111467 0.002355 7.432195 0.001736 7.100534 0.002364 7.416086 0.001806 13
7.050685 0.002155 7.436528 0.001557 7.139387 0.002052 7.537922 0.001438 7.320602 0.001713 7.688508 0.001241 7.290525 0.001788 7.638454 0.001319 13
7.157322 0.002183 7.523101 0.001604 7.174070 0.002166 7.526561 0.001610 7.385346 0.001801 7.710767 0.001333 7.330778 0.001913 7.649053 0.001461 13
7.137059 0.002310 7.519412 0.001642 7.241927 0.002122 7.640947 0.001436 7.417088 0.001745 7.780632 0.001234 7.404863 0.001813 7.758019 0.001290 13
5.942587 0.008575 6.215942 0.005518 5.922088 0.008548 6.210248 0.005525 6.097484 0.006832 6.270589 0.004854 6.109847 0.006631 6.275969 0.004795 14
6.053896 0.007033 6.333934 0.004552 6.034554 0.007035 6.332647 0.004540 6.221833 0.005457 6.392575 0.003956 6.215308 0.005551 6.395067 0.003996 14
5.686034 0.011299 5.965085 0.007449 5.667238 0.011364 5.959856 0.007436 5.847492 0.009027 6.018199 0.006631 5.856457 0.008926 6.027077 0.006443 14
5.522556 0.013381 5.792712 0.009034 5.496521 0.013423 5.784613 0.008911 5.680665 0.010725 5.850200 0.007885 5.683613 0.010710 5.852307 0.007865 14
6.014385 0.007780 6.291164 0.004985 5.993395 0.007807 6.284462 0.005077 6.170688 0.006108 6.340706 0.004400 6.185054 0.006030 6.351478 0.004336 14
6.052539 0.006989 6.333173 0.004540 6.033106 0.007017 6.331268 0.004556 6.219297 0.005449 6.393026 0.003976 6.218459 0.005506 6.393526 0.004000 14
5.876673 0.008717 6.154560 0.005736 5.855180 0.008745 6.149068 0.005731 6.040812 0.006886 6.216169 0.004968 6.040775 0.006863 6.214912 0.004983 14
6.002572 0.008322 6.278156 0.005329 5.973504 0.008435 6.267939 0.005323 6.161340 0.006537 6.333327 0.004606 6.165767 0.006503 6.336962 0.004598 14
6.079097 0.007537 6.346470 0.004840 6.044480 0.007623 6.334947 0.004869 6.231303 0.005959 6.394682 0.004260 6.235688 0.005901 6.399420 0.004218 14
6.011955 0.007522 6.284883 0.004960 5.998385 0.007523 6.288541 0.004887 6.173647 0.005961 6.345122 0.004289 6.178400 0.005894 6.346475 0.004318 14
5.922204 0.011007 6.246668 0.007348 5.885378 0.011161 6.232405 0.007365 6.096574 0.008835 6.345544 0.006229 6.085513 0.009071 6.336555 0.006377 15
5.900011 0.012287 6.224600 0.008171 5.861768 0.012768 6.203975 0.008375 6.073162 0.009950 6.326548 0.006784 6.070444 0.010151 6.326949 0.006877 15
5.570851 0.016144 5.886892 0.010958 5.527395 0.016789 5.860926 0.011252 5.736419 0.013247 5.981582 0.009367 5.735883 0.013379 5.977133 0.009465 15
5.380505 0.018483 5.695226 0.012744 5.363581 0.018555 5.699596 0.012315 5.558857 0.014859 5.803881 0.010609 5.559531 0.014808 5.804508 0.010546 15
5.886066 0.012103 6.201142 0.008219 5.852751 0.012367 6.189985 0.008198 6.041780 0.009906 6.288182 0.006907 6.064890 0.009787 6.305651 0.006837 15
5.820957 0.013302 6.145518 0.008903 5.775944 0.013891 6.115151 0.009291 5.990359 0.010927 6.242356 0.007480 5.985741 0.011096 6.242287 0.007594 15
5.564199 0.016617 5.887084 0.011140 5.534516 0.016919 5.869913 0.011282 5.733724 0.013550 5.988122 0.009367 5.738229 0.013466 5.989768 0.009293 15
6.057668 0.010185 6.375128 0.006915 6.038813 0.010255 6.379797 0.006687 6.244270 0.008087 6.491374 0.005491 6.232974 0.008308 6.476166 0.005800 15
6.072115 0.009700 6.393504 0.006437 6.036062 0.009977 6.373224 0.006469 6.250372 0.007823 6.494669 0.005266 6.242821 0.007846 6.490135 0.005348 15
5.752888 0.013733 6.072069 0.009184 5.729904 0.013912 6.069486 0.008989 5.935082 0.011034 6.181693 0.007487 5.925356 0.011144 6.176304 0.007600 15
7.358571 0.001027 7.670418 0.000720 7.941119 0.000525 8.249568 0.000377 7.942380 0.000524 8.226377 0.000385 7.994468 0.000493 8.270175 0.000367 16
7.208752 0.001237 7.506315 0.000879 7.735925 0.000669 8.056862 0.000464 7.743538 0.000666 8.025258 0.000486 7.804890 0.000621 8.081379 0.000452 16
7.382265 0.001122 7.654121 0.000822 7.926233 0.000592 8.217965 0.000424 7.930168 0.000588 8.194156 0.000436 7.979272 0.000559 8.232083 0.000417 16
7.449840 0.000928 7.737729 0.000668 7.999952 0.000487 8.311760 0.000343 7.995877 0.000490 8.275372 0.000357 8.065014 0.000453 8.340634 0.000332 16
7.181483 0.001269 7.505178 0.000869 7.755002 0.000643 8.078729 0.000457 7.768773 0.000633 8.055179 0.000467 7.811484 0.000607 8.097646 0.000448 16
7.223860 0.001234 7.518309 0.000882 7.748304 0.000668 8.067845 0.000466 7.750199 0.000668 8.037041 0.000487 7.817481 0.000620 8.097369 0.000450 16
7.240769 0.001147 7.530259 0.000825 7.749876 0.000646 8.066841 0.000449 7.757797 0.000646 8.038080 0.000465 7.817537 0.000599 8.091970 0.000434 16
7.029090 0.001379 7.350895 0.000970 7.538710 0.000767 7.914234 0.000520 7.564078 0.000748 7.887347 0.000533 7.617390 0.000709 7.949450 0.000504 16
7.098164 0.001405 7.422454 0.000963 7.644125 0.000744 8.011646 0.000491 7.653136 0.000739 7.979884 0.000513 7.721208 0.000680 8.043456 0.000480 16
7.216292 0.001159 7.550816 0.000801 7.765308 0.000611 8.145532 0.000412 7.767514 0.000618 8.101157 0.000427 7.856123 0.000559 8.184775 0.000398 16
6.190696 0.015106 6.463705 0.011462 6.237377 0.014990 6.479916 0.011421 6.367107 0.013197 6.539959 0.011499 6.366228 0.013194 6.535717 0.011498 17
5.993148 0.016640 6.273852 0.012993 6.064532 0.016021 6.308270 0.012562 6.177498 0.014336 6.346393 0.012642 6.189477 0.014421 6.380566 0.012218 17
6.819174 0.008030 7.146524 0.005800 6.908669 0.007749 7.164809 0.005661 7.050762 0.006681 7.254288 0.005351 7.046069 0.006709 7.251402 0.005424 17
6.369332 0.014063 6.648734 0.010678 6.486840 0.013455 6.728697 0.010122 6.613089 0.011625 6.769671 0.010042 6.564656 0.012461 6.731066 0.010679 17
6.359636 0.013164 6.662860 0.009942 6.442235 0.012745 6.704232 0.009553 6.558735 0.011287 6.753038 0.009556 6.581129 0.011153 6.777893 0.009418 17
5.897801 0.017602 6.166435 0.013963 5.950692 0.017148 6.177720 0.013801 6.066967 0.015370 6.227301 0.013681 6.069347 0.015526 6.249507 0.013376 17
5.965106 0.021810 6.244386 0.017197 6.050993 0.021244 6.281079 0.016755 6.175704 0.018919 6.337730 0.016573 6.142254 0.019471 6.313297 0.017053 17
6.184143 0.013731 6.473114 0.010105 6.269449 0.013429 6.525907 0.009808 6.393605 0.011688 6.565734 0.009638 6.388683 0.011764 6.560062 0.009966 17
6.096241 0.014201 6.378155 0.010880 6.181352 0.013745 6.434882 0.010418 6.323587 0.011899 6.498733 0.009944 6.277980 0.012423 6.459350 0.010566 17
6.879100 0.009601 7.213338 0.006923 6.970230 0.009352 7.252900 0.006730 7.108067 0.007990 7.332083 0.006323 7.112259 0.008137 7.344642 0.006367 17
5.808264 0.008777 6.083361 0.007176 5.844980 0.008696 6.154989 0.006887 5.902507 0.008126 6.150280 0.006767 5.924363 0.007939 6.187095 0.006402 18
5.634412 0.009882 5.906160 0.008160 5.676849 0.009629 5.972209 0.007858 5.757683 0.009038 5.988574 0.007781 5.735879 0.009002 5.986546 0.007522 18
5.790011 0.008583 6.068899 0.007063 5.819843 0.008425 6.117823 0.006805 5.884643 0.007819 6.124616 0.006668 5.912582 0.007791 6.169104 0.006459 18
6.007782 0.006396 6.280860 0.005309 6.033111 0.006443 6.334230 0.005150 6.117215 0.005883 6.352236 0.004973 6.101823 0.005847 6.341280 0.004993 18
5.759013 0.009214 6.028431 0.007604 5.811279 0.008956 6.108710 0.007283 5.871010 0.008538 6.102362 0.007299 5.870216 0.008344 6.125575 0.006890 18
5.664879 0.009889 5.943226 0.008149 5.710087 0.009624 6.008359 0.007868 5.791049 0.009041 6.027709 0.007749 5.763160 0.009023 6.015593 0.007514 18
6.051467 0.006030 6.329071 0.004972 6.085628 0.005998 6.388234 0.004832 6.163317 0.005519 6.407173 0.004738 6.147060 0.005511 6.403457 0.004603 18
5.559027 0.012527 5.826506 0.010249 5.602720 0.012336 5.897996 0.010059 5.662998 0.011633 5.893937 0.010006 5.676971 0.011390 5.925888 0.009372 18
5.681102 0.009276 5.943577 0.007768 5.716916 0.009179 6.005584 0.007519 5.805686 0.008479 6.031250 0.007344 5.790786 0.008488 6.038689 0.007165 18
5.942009 0.006933 6.210432 0.005832 5.978648 0.006873 6.276864 0.005676 6.066514 0.006369 6.297581 0.005497 6.028363 0.006390 6.266304 0.005453 18
5.381955 0.017513 5.554794 0.016272 6.839838 0.005622 7.137274 0.001966 6.839447 0.005607 7.135471 0.001984 6.854448 0.005486 7.134178 0.001949 19
5.774333 0.008445 5.951021 0.007628 7.241724 0.001806 7.547621 0.001321 7.246971 0.001800 7.546185 0.001312 7.252841 0.001780 7.547623 0.001331 19
5.582619 0.010552 5.728099 0.009831 7.007751 0.002915 7.331699 0.001427 7.020799 0.002883 7.334396 0.001425 7.022606 0.002863 7.330822 0.001423 19
5.640122 0.010817 5.819771 0.009872 7.071698 0.002795 7.411530 0.001397 7.075851 0.002801 7.411535 0.001395 7.086773 0.002752 7.409417 0.001394 19
5.622818 0.010309 5.794905 0.009520 7.069624 0.002808 7.366261 0.001533 7.070151 0.002790 7.361582 0.001544 7.083503 0.002750 7.362894 0.001536 19
5.725457 0.008166 5.880653 0.007407 7.191144 0.001863 7.505414 0.001298 7.198254 0.001850 7.506409 0.001286 7.202762 0.001832 7.506296 0.001303 19
5.821234 0.007870 5.983740 0.007219 7.308253 0.001539 7.620915 0.001205 7.315388 0.001534 7.619843 0.001204 7.318964 0.001519 7.622572 0.001209 19
5.564740 0.012590 5.736927 0.011619 7.016125 0.003329 7.305973 0.001648 7.019136 0.003318 7.305745 0.001653 7.028084 0.003278 7.302047 0.001647 19
5.698283 0.010781 5.861347 0.009860 7.162699 0.002520 7.471784 0.001392 7.166098 0.002528 7.473422 0.001392 7.178200 0.002475 7.468325 0.001403 19
5.780355 0.010413 5.948144 0.009568 7.212107 0.002527 7.486885 0.001262 7.216340 0.002522 7.489033 0.001261 7.219859 0.002527 7.487018 0.001265 19
8.156627 0.000484 8.526205 0.000290 8.192371 0.000444 8.557515 0.000273 8.236872 0.000426 8.548631 0.000277 8.495435 0.000302 8.665094 0.000227 20
8.149569 0.000441 8.476222 0.000291 8.166393 0.000428 8.488538 0.000287 8.233526 0.000391 8.499209 0.000281 8.448246 0.000301 8.574550 0.000256 20
8.198332 0.000418 8.534420 0.000277 8.193331 0.000419 8.533326 0.000275 8.270824 0.000379 8.549006 0.000269 8.491852 0.000291 8.631150 0.000243 20
8.195705 0.000424 8.480393 0.000303 8.206393 0.000415 8.498287 0.000295 8.268770 0.000383 8.496685 0.000293 8.461276 0.000310 8.565803 0.000271 20
8.126729 0.000487 8.488669 0.000300 8.177989 0.000439 8.522819 0.000280 8.237697 0.000414 8.530796 0.000277 8.462561 0.000307 8.617821 0.000241 20
8.154100 0.000443 8.481683 0.000289 8.165600 0.000429 8.492422 0.000285 8.232689 0.000396 8.502262 0.000279 8.450942 0.000300 8.576136 0.000254 20
8.123692 0.000462 8.418153 0.000320 8.143425 0.000438 8.438050 0.000311 8.216531 0.000404 8.450160 0.000306 8.399126 0.000329 8.508278 0.000284 20
8.154465 0.000461 8.509614 0.000282 8.191595 0.000427 8.529026 0.000272 8.257147 0.000395 8.536275 0.000269 8.475873 0.000296 8.626576 0.000233 20
8.063672 0.000508 8.383797 0.000325 8.085641 0.000480 8.396686 0.000316 8.147313 0.000443 8.399464 0.000310 8.358475 0.000339 8.473202 0.000278 20
8.076072 0.000459 8.361862 0.000325 8.090316 0.000445 8.375641 0.000321 8.156687 0.000413 8.385880 0.000317 8.342951 0.000334 8.440824 0.000295 20
7.160926 0.002133 7.478985 0.001556 7.030116 0.002141 7.222416 0.001760 7.393860 0.001569 7.608630 0.001279 7.381056 0.001592 7.598967 0.001280 21
7.277590 0.001734 7.620302 0.001191 7.265564 0.001415 7.447701 0.001160 7.592814 0.001078 7.794635 0.000869 7.549741 0.001111 7.769302 0.000898 21
7.725191 0.000876 8.027621 0.000589 7.449281 0.001100 7.664467 0.000832 7.903273 0.000656 8.101295 0.000521 7.882947 0.000667 8.100167 0.000518 21
7.384072 0.001297 7.698947 0.000885 7.235755 0.001406 7.473801 0.001075 7.596517 0.000945 7.790642 0.000762 7.560007 0.000990 7.789110 0.000770 21
7.061800 0.003408 7.419470 0.002452 7.146696 0.002561 7.314151 0.002237 7.400398 0.002192 7.614619 0.001833 7.387203 0.002211 7.600039 0.001869 21
7.319855 0.001697 7.657744 0.001173 7.307966 0.001340 7.486810 0.001104 7.637757 0.001032 7.833746 0.000846 7.589379 0.001071 7.806239 0.000878 21
7.046296 0.001949 7.358044 0.001341 6.995317 0.001828 7.181060 0.001449 7.324022 0.001303 7.488329 0.001084 7.271359 0.001380 7.475660 0.001094 21
7.222912 0.002202 7.584574 0.001551 7.296766 0.001670 7.488449 0.001447 7.553026 0.001423 7.764821 0.001190 7.543869 0.001422 7.764716 0.001194 21
7.261137 0.001712 7.597017 0.001209 7.319289 0.001333 7.507329 0.001102 7.600494 0.001049 7.792563 0.000873 7.579833 0.001064 7.790307 0.000868 21
7.294322 0.001414 7.632569 0.000976 7.280361 0.001369 7.493134 0.001040 7.599914 0.000931 7.794334 0.000759 7.568495 0.000959 7.792547 0.000765 21
6.594021 0.005984 6.992037 0.004133 6.640176 0.006085 6.776758 0.005235 6.997265 0.004273 7.273288 0.002948 6.982013 0.004333 7.235252 0.003112 22
6.676456 0.008005 7.053737 0.005867 6.614305 0.004953 6.753350 0.004297 7.040040 0.003794 7.305247 0.002934 6.988621 0.003979 7.252305 0.003073 22
7.185434 0.004076 7.573714 0.002709 6.952865 0.003606 7.120155 0.002927 7.447286 0.002425 7.737747 0.001619 7.421254 0.002486 7.712592 0.001667 22
7.377029 0.003703 7.760475 0.002318 7.174518 0.003118 7.409430 0.002301 7.596893 0.002169 7.887570 0.001451 7.582481 0.002277 7.881649 0.001488 22
6.483581 0.007209 6.883262 0.004968 6.531218 0.006435 6.650776 0.005603 6.883409 0.004702 7.157029 0.003290 6.863196 0.004729 7.121627 0.003459 22
6.786569 0.006805 7.161478 0.004936 6.728503 0.004276 6.864782 0.003775 7.151893 0.003250 7.417498 0.002546 7.095594 0.003413 7.358170 0.002684 22
7.179816 0.004978 7.555754 0.003428 6.995890 0.003579 7.161006 0.002961 7.455589 0.002584 7.719629 0.001929 7.418512 0.002715 7.698088 0.001993 22
6.744384 0.006581 7.151291 0.004402 6.691358 0.005848 6.827147 0.004980 7.052152 0.004340 7.327326 0.002987 7.066249 0.004193 7.333192 0.002959 22
7.206460 0.004027 7.586573 0.002799 7.009521 0.003033 7.161241 0.002591 7.463744 0.002164 7.748906 0.001556 7.463769 0.002145 7.749708 0.001556 22
7.264325 0.005165 7.633864 0.003525 7.081506 0.003396 7.270711 0.002829 7.542443 0.002485 7.812361 0.001838 7.504853 0.002568 7.784315 0.001894 22
7.251795 0.001497 7.656080 0.000972 7.352512 0.001417 7.754327 0.000909 7.512498 0.001171 7.850846 0.000779 7.546434 0.001123 7.886133 0.000734 23
7.276176 0.001430 7.698919 0.000911 7.430089 0.001260 7.858448 0.000772 7.587953 0.001051 7.953005 0.000678 7.606983 0.001025 7.967397 0.000655 23
7.478273 0.001190 7.894106 0.000774 7.587483 0.001090 7.992342 0.000684 7.736470 0.000924 8.079030 0.000592 7.786882 0.000879 8.124813 0.000565 23
7.541354 0.001011 7.955934 0.000633 7.674868 0.000893 8.082122 0.000550 7.830234 0.000736 8.171203 0.000469 7.843725 0.000746 8.175659 0.000475 23
7.123620 0.001761 7.558543 0.001134 7.262128 0.001566 7.680696 0.001000 7.436728 0.001319 7.803952 0.000850 7.433019 0.001292 7.804401 0.000843 23
7.298165 0.001400 7.723540 0.000886 7.470054 0.001204 7.901096 0.000732 7.610953 0.001028 7.979384 0.000660 7.648756 0.000978 8.016735 0.000619 23
7.441680 0.001135 7.866933 0.000722 7.565752 0.001018 7.987338 0.000635 7.724284 0.000849 8.077997 0.000558 7.747397 0.000835 8.109996 0.000533 23
7.089219 0.001828 7.538262 0.001130 7.198623 0.001683 7.657735 0.001016 7.391643 0.001352 7.782069 0.000850 7.382834 0.001361 7.778711 0.000849 23
7.220009 0.001566 7.662313 0.000979 7.335629 0.001411 7.786404 0.000869 7.518107 0.001151 7.899903 0.000733 7.533274 0.001149 7.912747 0.000721 23
7.338290 0.001298 7.784482 0.000795 7.456904 0.001179 7.905228 0.000714 7.633423 0.000973 8.019816 0.000615 7.649585 0.000941 8.019495 0.000593 23
6.592918 0.003170 6.945041 0.002290 6.611107 0.003129 6.976337 0.002228 6.836451 0.002548 7.139683 0.001889 6.758466 0.002712 7.072251 0.002013 24
6.664575 0.002331 7.011313 0.001696 6.742477 0.002203 7.109132 0.001572 6.888981 0.001918 7.189036 0.001426 6.909348 0.001870 7.230025 0.001368 24
6.470600 0.003049 6.780888 0.002286 6.513290 0.002997 6.837038 0.002242 6.671374 0.002565 6.932448 0.001993 6.669667 0.002594 6.935693 0.002034 24
6.932387 0.002021 7.317598 0.001398 7.015114 0.001877 7.421033 0.001257 7.211553 0.001562 7.563774 0.001066 7.174902 0.001593 7.526202 0.001090 24
6.649791 0.002327 7.024999 0.001621 6.695772 0.002245 7.085749 0.001528 6.886375 0.001860 7.226484 0.001311 6.880453 0.001863 7.231509 0.001304 24
6.540225 0.002800 6.868197 0.002090 6.591763 0.002711 6.934005 0.001995 6.750535 0.002354 7.030608 0.001795 6.746195 0.002343 7.041596 0.001774 24
6.326165 0.003419 6.667931 0.002458 6.373569 0.003300 6.732830 0.002297 6.567835 0.002744 6.868499 0.001966 6.521168 0.002826 6.828451 0.002037 24
6.096763 0.004853 6.388810 0.003743 6.108605 0.004855 6.417293 0.003652 6.289617 0.004100 6.543611 0.003209 6.256549 0.004227 6.516164 0.003323 24
6.331701 0.003729 6.636194 0.002826 6.353525 0.003699 6.672781 0.002766 6.527748 0.003133 6.790719 0.002416 6.505624 0.003195 6.771006 0.002491 24
6.164305 0.003899 6.474213 0.002909 6.220218 0.003804 6.534009 0.002810 6.369702 0.003248 6.630745 0.002496 6.373184 0.003252 6.634809 0.002498 24
5.545404 0.006088 5.744809 0.004947 5.376051 0.007059 5.591328 0.005663 5.574574 0.005870 5.714840 0.005097 5.652087 0.005392 5.824049 0.004484 25
5.584536 0.005718 5.749417 0.004812 5.490138 0.006191 5.728082 0.004825 5.666358 0.005208 5.813986 0.004463 5.686896 0.005108 5.841156 0.004319 25
5.418313 0.006603 5.612054 0.005414 5.411867 0.006474 5.676847 0.004930 5.528025 0.005855 5.697680 0.004907 5.590959 0.005474 5.785141 0.004425 25
5.692630 0.004777 5.882503 0.003900 5.570694 0.005282 5.821507 0.004086 5.799047 0.004213 5.985244 0.003430 5.767972 0.004402 5.908793 0.003783 25
6.117498 0.003098 6.332450 0.002477 5.929338 0.003763 6.169107 0.002960 6.166139 0.002943 6.329165 0.002482 6.222951 0.002772 6.409215 0.002286 25
5.491901 0.006288 5.650796 0.005338 5.398781 0.006815 5.633909 0.005345 5.573426 0.005742 5.717614 0.004950 5.589695 0.005647 5.739883 0.004798 25
5.578476 0.005683 5.734915 0.004793 5.443469 0.006340 5.688220 0.004946 5.648895 0.005240 5.789377 0.004526 5.667946 0.005145 5.817243 0.004367 25
6.170958 0.002767 6.343627 0.002315 5.993161 0.003316 6.231664 0.002599 6.218455 0.002630 6.364753 0.002268 6.271180 0.002497 6.418994 0.002133 25
6.238790 0.002704 6.401238 0.002275 5.964843 0.003466 6.191427 0.002778 6.274791 0.002572 6.425354 0.002203 6.305532 0.002509 6.432047 0.002196 25
5.989875 0.003411 6.152476 0.002877 5.823208 0.004064 6.065164 0.003158 6.060517 0.003172 6.202135 0.002735 6.072464 0.003136 6.213259 0.002705 25
7.523540 0.001182 7.932472 0.000717 7.490070 0.001229 7.900846 0.000754 7.734802 0.000908 8.053880 0.000617 7.745487 0.000921 8.057504 0.000627 26
7.488795 0.001211 7.864117 0.000782 7.493881 0.001165 7.867046 0.000746 7.698350 0.000939 7.996566 0.000626 7.705230 0.000922 7.994202 0.000621 26
7.575398 0.000910 7.970524 0.000583 7.602083 0.000872 7.987841 0.000562 7.813626 0.000694 8.121619 0.000472 7.801332 0.000701 8.106072 0.000483 26
7.380842 0.001265 7.762090 0.000801 7.422610 0.001179 7.801733 0.000753 7.639285 0.000930 7.924446 0.000626 7.584440 0.000983 7.894625 0.000655 26
7.384629 0.001543 7.788371 0.000929 7.352273 0.001634 7.760832 0.000981 7.583458 0.001206 7.903177 0.000799 7.612220 0.001176 7.919609 0.000795 26
7.484944 0.001194 7.860855 0.000773 7.500769 0.001136 7.879612 0.000725 7.700014 0.000917 7.999252 0.000609 7.709234 0.000908 8.002565 0.000605 26
7.727241 0.000726 8.107111 0.000463 7.704380 0.000734 8.078705 0.000476 7.954179 0.000556 8.234759 0.000395 7.913215 0.000583 8.205456 0.000410 26
7.459407 0.001508 7.879298 0.000882 7.399250 0.001635 7.831987 0.000964 7.670793 0.001172 8.003333 0.000771 7.680868 0.001144 8.008597 0.000758 26
7.615190 0.000986 8.010401 0.000619 7.555623 0.001007 7.968725 0.000632 7.812201 0.000787 8.137924 0.000517 7.815373 0.000765 8.147582 0.000503 26
7.511254 0.001095 7.903798 0.000681 7.469343 0.001127 7.875373 0.000705 7.723449 0.000851 8.050573 0.000548 7.709090 0.000867 8.036716 0.000562 26
6.839527 0.006346 7.121913 0.004885 6.942392 0.005764 7.237917 0.004166 7.097294 0.004939 7.321690 0.003749 7.028712 0.005292 7.251945 0.004023 27
6.273832 0.010887 6.559972 0.008954 6.374711 0.010392 6.684374 0.008129 6.519105 0.009265 6.764890 0.007584 6.474255 0.009478 6.736105 0.007749 27
6.120707 0.012420 6.367512 0.010933 6.193139 0.012157 6.463171 0.010347 6.330101 0.011245 6.546657 0.009841 6.283200 0.011357 6.491856 0.010094 27
4.768206 0.029623 4.949053 0.026263 4.806990 0.029207 5.015605 0.024980 4.924825 0.026638 5.071816 0.023785 4.878679 0.027339 5.028470 0.024680 27
6.669149 0.006963 6.971586 0.005627 6.795293 0.006355 7.142769 0.004731 6.965012 0.005584 7.245997 0.004334 6.870392 0.005886 7.146676 0.004658 27
6.445236 0.009314 6.734897 0.007682 6.551505 0.008883 6.874496 0.006950 6.703041 0.007907 6.955315 0.006450 6.646891 0.008144 6.916238 0.006638 27
6.687499 0.006326 6.983170 0.004930 6.814956 0.005740 7.141091 0.004249 6.967012 0.005066 7.221841 0.003912 6.910968 0.005198 7.173253 0.004047 27
6.238057 0.010842 6.528540 0.008699 6.340468 0.010204 6.664796 0.007646 6.500714 0.008937 6.748436 0.007004 6.432437 0.009282 6.693008 0.007311 27
6.897055 0.005336 7.245013 0.004184 7.011452 0.005025 7.390631 0.003660 7.203004 0.004321 7.511535 0.003228 7.115536 0.004562 7.420413 0.003536 27
6.581495 0.007528 6.882927 0.005812 6.684179 0.006951 7.014975 0.004991 6.849606 0.005983 7.103206 0.004480 6.791057 0.006261 7.044186 0.004838 27
7.601794 0.000732 7.884842 0.000504 7.578139 0.000753 7.851039 0.000536 7.868144 0.000518 7.989273 0.000446 7.801856 0.000557 7.977440 0.000449 28
7.480186 0.000833 7.781773 0.000560 7.446173 0.000856 7.734762 0.000602 7.748265 0.000585 7.900070 0.000481 7.673911 0.000642 7.870364 0.000496 28
7.648449 0.000690 7.928904 0.000484 7.617690 0.000721 7.893875 0.000509 7.904281 0.000500 8.024422 0.000432 7.838426 0.000538 8.008230 0.000438 28
7.535986 0.000854 7.852387 0.000553 7.556021 0.000816 7.843942 0.000569 7.839413 0.000567 8.003058 0.000440 7.737622 0.000648 7.955741 0.000477 28
7.559674 0.000750 7.848853 0.000524 7.543053 0.000775 7.822323 0.000547 7.827122 0.000538 7.952193 0.000472 7.770080 0.000571 7.939487 0.000470 28
7.522044 0.000790 7.817107 0.000536 7.489164 0.000815 7.778448 0.000574 7.790126 0.000557 7.932151 0.000468 7.713155 0.000612 7.903168 0.000481 28
7.530863 0.000805 7.842018 0.000533 7.539540 0.000773 7.832898 0.000541 7.819707 0.000546 7.982792 0.000438 7.733125 0.000613 7.946727 0.000464 28
7.420325 0.000870 7.717827 0.000590 7.398342 0.000905 7.689128 0.000625 7.689952 0.000614 7.830558 0.000525 7.630750 0.000666 7.817233 0.000522 28
7.350160 0.000934 7.655971 0.000620 7.316431 0.000980 7.607624 0.000682 7.616520 0.000663 7.776078 0.000536 7.543610 0.000731 7.742494 0.000560 28
7.427545 0.000881 7.743771 0.000581 7.412397 0.000889 7.707404 0.000617 7.704835 0.000608 7.869301 0.000487 7.617103 0.000692 7.833866 0.000516 28
7.926810 0.000650 8.362120 0.000371 8.228199 0.000469 8.587459 0.000277 8.430330 0.000328 8.697783 0.000220 8.382252 0.000352 8.675201 0.000229 29
7.927355 0.000637 8.352949 0.000368 8.193344 0.000471 8.555223 0.000283 8.409570 0.000333 8.674566 0.000227 8.366223 0.000354 8.651663 0.000235 29
7.909706 0.000678 8.336934 0.000387 8.224430 0.000525 8.573249 0.000304 8.428970 0.000350 8.689797 0.000232 8.380429 0.000379 8.666934 0.000241 29
7.932636 0.000631 8.357322 0.000369 8.219156 0.000498 8.578055 0.000292 8.424220 0.000339 8.688728 0.000227 8.386155 0.000355 8.669370 0.000235 29
7.925420 0.000646 8.360217 0.000363 8.163191 0.000530 8.522324 0.000311 8.390726 0.000350 8.656795 0.000234 8.345781 0.000380 8.633933 0.000245 29
7.927148 0.000640 8.353276 0.000370 8.193913 0.000476 8.560948 0.000283 8.411602 0.000333 8.679865 0.000226 8.366580 0.000356 8.653992 0.000235 29
7.917469 0.000623 8.334747 0.000370 8.205806 0.000452 8.557312 0.000277 8.419024 0.000319 8.677797 0.000223 8.375121 0.000337 8.655375 0.000230 29
7.898593 0.000636 8.331635 0.000368 8.133714 0.000468 8.497809 0.000287 8.380477 0.000327 8.649812 0.000228 8.326639 0.000351 8.621619 0.000237 29
7.930500 0.000624 8.350681 0.000367 8.170633 0.000440 8.519370 0.000279 8.397782 0.000323 8.657326 0.000225 8.351363 0.000345 8.642595 0.000231 29
7.927822 0.000613 8.344328 0.000366 8.136251 0.000465 8.487240 0.000293 8.384964 0.000325 8.637343 0.000233 8.338486 0.000346 8.616859 0.000241 29
7.666803 0.000801 7.960182 0.000530 7.621684 0.001051 7.907156 0.000643 7.932256 0.000568 8.050813 0.000444 7.901055 0.000604 8.065952 0.000447 30
7.594672 0.000828 7.880531 0.000556 7.557380 0.001048 7.844197 0.000650 7.865401 0.000593 7.969293 0.000473 7.820370 0.000648 7.985057 0.000481 30
7.775345 0.000670 8.047888 0.000451 7.692288 0.000872 7.967988 0.000546 8.007112 0.000487 8.090103 0.000423 7.966220 0.000527 8.114414 0.000411 30
7.472047 0.001149 7.767691 0.000731 7.473346 0.001467 7.756065 0.000860 7.751618 0.000780 7.863959 0.000560 7.715834 0.000861 7.880875 0.000598 30
7.701555 0.000779 8.001030 0.000503 7.644589 0.001020 7.926084 0.000642 7.973249 0.000556 8.087448 0.000437 7.924150 0.000602 8.094468 0.000432 30
7.656238 0.000751 7.929939 0.000509 7.612412 0.000931 7.890385 0.000586 7.911818 0.000538 7.995535 0.000459 7.875482 0.000585 8.018241 0.000455 30
7.270415 0.001438 7.569489 0.000925 7.305064 0.001770 7.579347 0.001047 7.576674 0.000963 7.674306 0.000692 7.527745 0.001097 7.694678 0.000746 30
7.562847 0.000885 7.860433 0.000593 7.529015 0.001169 7.813206 0.000730 7.853102 0.000629 7.971127 0.000482 7.792647 0.000699 7.965267 0.000513 30
7.463305 0.000973 7.738005 0.000664 7.431137 0.001208 7.695957 0.000768 7.723255 0.000690 7.801986 0.000564 7.672567 0.000778 7.819977 0.000591 30
7.332644 0.001242 7.610575 0.000831 7.340429 0.001560 7.612382 0.000948 7.623514 0.000862 7.721939 0.000640 7.578872 0.000956 7.731852 0.000682 30
5.688348 0.013216 5.950672 0.011802 5.777011 0.013025 6.054388 0.011248 5.889621 0.012115 6.142934 0.010710 5.868229 0.012092 6.116848 0.010760 31
5.859519 0.010206 6.112658 0.009027 5.883355 0.010214 6.148477 0.008799 6.002138 0.009429 6.244644 0.008463 6.026795 0.009380 6.267268 0.008425 31
5.635107 0.014198 5.891260 0.012605 5.621356 0.014317 5.884021 0.012557 5.744407 0.013316 5.992356 0.011768 5.782708 0.013258 6.032696 0.011835 31
5.611312 0.015478 5.872892 0.013845 5.592561 0.015588 5.874547 0.013604 5.712961 0.014475 5.974225 0.012848 5.765089 0.014413 6.033842 0.012830 31
5.881261 0.012995 6.172358 0.011255 5.801027 0.013097 6.090788 0.011314 6.024683 0.011919 6.287969 0.010607 5.966189 0.012135 6.234488 0.010726 31
6.073305 0.008245 6.352777 0.007151 6.115133 0.008196 6.407365 0.006941 6.240896 0.007467 6.517109 0.006516 6.261671 0.007479 6.524151 0.006579 31
6.327210 0.007208 6.673295 0.005877 6.321755 0.007230 6.679598 0.005872 6.476738 0.006531 6.804394 0.005484 6.536020 0.006343 6.885872 0.005183 31
6.112400 0.010084 6.411812 0.008760 6.106508 0.010151 6.415497 0.008725 6.246547 0.009344 6.545386 0.008151 6.290856 0.009184 6.575714 0.008039 31
5.620778 0.014093 5.886370 0.012225 5.657883 0.013963 5.934460 0.011996 5.802786 0.012810 6.059162 0.011191 5.750602 0.012942 6.003795 0.011483 31
5.924223 0.011409 6.232810 0.009832 5.960089 0.011264 6.281881 0.009500 6.078203 0.010255 6.380825 0.008901 6.137392 0.010314 6.432976 0.008874 31
6.716084 0.006098 7.097685 0.005133 6.803018 0.005956 7.176718 0.004885 7.020206 0.005455 7.352819 0.004542 6.877867 0.005468 7.225295 0.004558 32
5.750443 0.013300 6.051086 0.011423 5.795467 0.013189 6.110723 0.011003 5.959980 0.011848 6.248154 0.010049 5.932389 0.012180 6.221594 0.010355 32
6.050108 0.014465 6.381865 0.012790 6.171290 0.014425 6.524498 0.012331 6.321615 0.013279 6.637480 0.011706 6.268695 0.013337 6.593839 0.011544 32
6.442986 0.008713 6.811381 0.007137 6.475907 0.008859 6.850123 0.007287 6.682733 0.007903 7.016166 0.006521 6.601671 0.007983 6.940621 0.006466 32
6.584894 0.006106 6.957933 0.004810 6.560241 0.006185 6.935060 0.004812 6.805531 0.005322 7.147398 0.004172 6.733603 0.005471 7.072908 0.004300 32
5.967812 0.011472 6.284415 0.009844 6.019416 0.011346 6.353848 0.009508 6.199049 0.010207 6.506260 0.008733 6.141783 0.010561 6.442087 0.009104 32
5.369399 0.025392 5.670941 0.022322 5.418949 0.025618 5.721616 0.022060 5.550299 0.023627 5.834101 0.020516 5.564080 0.023461 5.837657 0.020340 32
6.292075 0.009340 6.618878 0.007987 6.303057 0.009067 6.653504 0.007485 6.515463 0.008230 6.826720 0.007022 6.459072 0.008423 6.765484 0.007211 32
5.570620 0.015421 5.853167 0.013518 5.599275 0.015366 5.900973 0.013064 5.777573 0.013910 6.041928 0.012003 5.705536 0.014332 5.967995 0.012622 32
6.004185 0.012025 6.330103 0.010429 6.072389 0.011730 6.423152 0.009704 6.234596 0.010639 6.554806 0.008985 6.216150 0.010849 6.519367 0.009402 32
5.639129 0.022982 5.940268 0.020938 5.590800 0.023431 5.896815 0.021157 5.713964 0.021993 5.988326 0.020409 5.828392 0.021763 6.119762 0.019800 33
6.934784 0.002126 7.374203 0.001439 6.862524 0.002220 7.301700 0.001506 7.049913 0.001887 7.435496 0.001337 7.198816 0.001674 7.606387 0.001149 33
7.067265 0.001591 7.514786 0.001005 6.964369 0.001779 7.404004 0.001141 7.184500 0.001410 7.587927 0.000942 7.311041 0.001241 7.724578 0.000816 33
6.707671 0.003392 7.135466 0.002246 6.635209 0.003645 7.059757 0.002472 6.828678 0.002991 7.208133 0.002078 6.965545 0.002666 7.354852 0.001836 33
6.883371 0.001899 7.326703 0.001268 6.806268 0.002014 7.244462 0.001344 7.015470 0.001682 7.405885 0.001187 7.132917 0.001503 7.552921 0.001017 33
6.825588 0.002601 7.247391 0.001837 6.747691 0.002704 7.170923 0.001923 6.927338 0.002335 7.299962 0.001723 7.079178 0.002103 7.478683 0.001485 33
7.267530 0.001209 7.748063 0.000709 7.184288 0.001300 7.663605 0.000779 7.395860 0.001039 7.817529 0.000659 7.550516 0.000887 7.993554 0.000537 33
6.619180 0.003388 7.033250 0.002479 6.686133 0.003061 7.123590 0.002137 6.821358 0.002805 7.216879 0.002017 6.930950 0.002566 7.341029 0.001775 33
6.562575 0.004980 6.936996 0.004344 6.586981 0.004838 6.993792 0.004017 6.738239 0.004573 7.094165 0.003991 6.826589 0.004390 7.189932 0.003767 33
6.677576 0.003027 7.086978 0.002305 6.728193 0.002890 7.166208 0.002099 6.899439 0.002588 7.290946 0.001962 6.955720 0.002463 7.365253 0.001823 33
7.557556 0.000805 7.872227 0.000566 7.643968 0.000731 7.920150 0.000540 7.782688 0.000635 7.980908 0.000502 7.785584 0.000620 7.982111 0.000496 34
7.777140 0.000605 8.099426 0.000418 7.871789 0.000547 8.131474 0.000411 8.006683 0.000473 8.192893 0.000378 8.011361 0.000462 8.199835 0.000372 34
7.779962 0.000612 8.105895 0.000422 7.893603 0.000547 8.167258 0.000399 8.023291 0.000475 8.216061 0.000377 8.028221 0.000462 8.228259 0.000364 34
7.677588 0.000698 8.016454 0.000471 7.815982 0.000606 8.092278 0.000441 7.943084 0.000523 8.140464 0.000407 7.942012 0.000518 8.151150 0.000400 34
7.691639 0.000694 8.006193 0.000486 7.783466 0.000619 8.055272 0.000461 7.940159 0.000529 8.121898 0.000428 7.899785 0.000538 8.100245 0.000434 34
7.777029 0.000605 8.099219 0.000418 7.876224 0.000545 8.135832 0.000409 8.007466 0.000473 8.194949 0.000377 8.015202 0.000460 8.202043 0.000371 34
7.809287 0.000598 8.139588 0.000405 7.913515 0.000532 8.189653 0.000392 8.048387 0.000463 8.244758 0.000364 8.051541 0.000455 8.255024 0.000357 34
7.646417 0.000714 7.974587 0.000497 7.730209 0.000650 8.010712 0.000478 7.872311 0.000558 8.067820 0.000449 7.881325 0.000550 8.083766 0.000437 34
7.746544 0.000635 8.071603 0.000435 7.801991 0.000598 8.076953 0.000440 7.958131 0.000501 8.150709 0.000401 7.964339 0.000495 8.161952 0.000393 34
7.739234 0.000635 8.073868 0.000429 7.798281 0.000596 8.075816 0.000436 7.959049 0.000498 8.153706 0.000395 7.959920 0.000492 8.162237 0.000386 34
7.967160 0.000493 8.173449 0.000384 7.830036 0.000543 8.107442 0.000410 8.149823 0.000392 8.179722 0.000381 7.756936 0.000639 8.042600 0.000461 35
7.539098 0.000710 7.665944 0.000605 7.214662 0.001050 7.547512 0.000714 7.637375 0.000631 7.664111 0.000607 7.400827 0.000840 7.620034 0.000646 35
8.244144 0.000347 8.383100 0.000297 8.000235 0.000446 8.305732 0.000322 8.368233 0.000299 8.387191 0.000296 8.027709 0.000451 8.301198 0.000328 35
7.638083 0.000693 7.800389 0.000550 7.510512 0.000797 7.758297 0.000585 7.786744 0.000559 7.805978 0.000544 7.444738 0.000897 7.703261 0.000639 35
7.635634 0.000647 7.766008 0.000556 7.245312 0.001029 7.599181 0.000689 7.727256 0.000582 7.764912 0.000555 7.533228 0.000728 7.729160 0.000583 35
7.574933 0.000681 7.688332 0.000595 7.198524 0.001052 7.546176 0.000712 7.656770 0.000619 7.683326 0.000599 7.456448 0.000788 7.656620 0.000620 35
7.612851 0.000775 7.747143 0.000621 7.287814 0.001160 7.611006 0.000776 7.713165 0.000661 7.746023 0.000624 7.477755 0.000969 7.697551 0.000699 35
7.873628 0.000483 8.038493 0.000401 7.729187 0.000572 7.989696 0.000425 8.020468 0.000409 8.039192 0.000402 7.625137 0.000648 7.907279 0.000469 35
7.922263 0.000479 8.101077 0.000389 7.872333 0.000495 8.078865 0.000397 8.091280 0.000392 8.101081 0.000389 7.666576 0.000647 7.957727 0.000465 35
7.250320 0.001245 7.461444 0.000901 7.218224 0.001213 7.440357 0.000936 7.453791 0.000916 7.474152 0.000890 7.033246 0.001598 7.316878 0.001133 35
7.028192 0.002925 7.268352 0.002263 7.301856 0.002516 7.567277 0.001893 7.408197 0.002178 7.616016 0.001788 7.433260 0.002095 7.628294 0.001802 36
7.253266 0.001681 7.486082 0.001286 7.543539 0.001296 7.793369 0.000983 7.646011 0.001139 7.844099 0.000926 7.664908 0.001089 7.857706 0.000934 36
7.072399 0.002773 7.322149 0.002062 7.354174 0.002215 7.635954 0.001660 7.466315 0.001948 7.700864 0.001541 7.494341 0.001878 7.711291 0.001528 36
7.235737 0.001830 7.512093 0.001298 7.520028 0.001486 7.840115 0.001043 7.658903 0.001207 7.908510 0.000952 7.687990 0.001165 7.923083 0.000937 36
7.164209 0.002413 7.396284 0.001899 7.429258 0.002001 7.686812 0.001525 7.520575 0.001754 7.733482 0.001459 7.546961 0.001693 7.742401 0.001450 36
7.278785 0.001748 7.511899 0.001345 7.568150 0.001373 7.810367 0.001057 7.672465 0.001221 7.863866 0.000994 7.691951 0.001160 7.876213 0.001001 36
7.200671 0.001967 7.467830 0.001472 7.562494 0.001547 7.848973 0.001145 7.664260 0.001360 7.893185 0.001100 7.678378 0.001322 7.899519 0.001086 36
7.435942 0.001403 7.675848 0.001048 7.689080 0.001104 7.970915 0.000798 7.793904 0.000970 8.017329 0.000758 7.815275 0.000937 8.024936 0.000744 36
7.593049 0.000921 7.853320 0.000684 7.885688 0.000671 8.175101 0.000480 7.992595 0.000586 8.238269 0.000451 8.006803 0.000566 8.238221 0.000455 36
7.403522 0.001140 7.685008 0.000836 7.728478 0.000816 8.068533 0.000568 7.858111 0.000687 8.135020 0.000520 7.866211 0.000685 8.137589 0.000517 36
6.464828 0.003469 6.785798 0.002681 6.748523 0.003072 7.076273 0.002261 6.896785 0.002594 7.219996 0.001906 6.907158 0.002577 7.231924 0.001878 37
6.362673 0.003970 6.630579 0.003226 6.650590 0.003549 6.959643 0.002680 6.770059 0.003101 7.071379 0.002352 6.773189 0.003098 7.064885 0.002388 37
6.431828 0.003661 6.735260 0.002881 6.724181 0.003174 7.044095 0.002365 6.861227 0.002735 7.176205 0.002031 6.861679 0.002763 7.166169 0.002070 37
6.354383 0.003978 6.664460 0.003115 6.677550 0.003373 7.014655 0.002431 6.807893 0.002930 7.140324 0.002107 6.822679 0.002865 7.152871 0.002060 37
6.357901 0.004005 6.635604 0.003220 6.651214 0.003493 6.948876 0.002675 6.767729 0.003087 7.055044 0.002357 6.781115 0.003073 7.057452 0.002353 37
6.381539 0.003747 6.642767 0.003060 6.648292 0.003391 6.942994 0.002595 6.766795 0.002963 7.049919 0.002290 6.771076 0.002963 7.048396 0.002315 37
6.221434 0.005659 6.507152 0.004619 6.521081 0.005089 6.841401 0.003812 6.653480 0.004430 6.957660 0.003377 6.657083 0.004439 6.962110 0.003385 37
6.243650 0.005054 6.526100 0.004092 6.570124 0.004391 6.889491 0.003317 6.698356 0.003814 7.006756 0.002860 6.693108 0.003849 7.002500 0.002880 37
6.155754 0.005271 6.420465 0.004328 6.509384 0.004519 6.812978 0.003414 6.618499 0.003999 6.912411 0.003055 6.617974 0.004022 6.905712 0.003068 37
6.065162 0.007041 6.350845 0.005798 6.413499 0.006165 6.724258 0.004728 6.529739 0.005506 6.830034 0.004210 6.524051 0.005487 6.822748 0.004228 37
5.546483 0.017682 5.744954 0.015037 5.742065 0.015674 5.978710 0.012875 5.783939 0.014913 6.005061 0.012460 5.824845 0.014399 6.026349 0.012264 38
5.910606 0.012419 6.095377 0.010637 6.080254 0.011075 6.280520 0.009126 6.118928 0.010579 6.308195 0.008859 6.160266 0.010130 6.329123 0.008702 38
5.589596 0.017084 5.776157 0.014637 5.790616 0.015171 6.013558 0.012663 5.822947 0.014570 6.027504 0.012383 5.864039 0.013970 6.046913 0.012098 38
5.321268 0.018837 5.505085 0.016220 5.526505 0.016849 5.763639 0.013795 5.569597 0.015899 5.779310 0.013467 5.601803 0.015562 5.794250 0.013318 38
5.263444 0.024900 5.435077 0.021545 5.427957 0.022340 5.632599 0.018846 5.462623 0.021487 5.648881 0.018351 5.492337 0.020823 5.663165 0.018112 38
5.886488 0.013188 6.076464 0.011311 6.052412 0.011874 6.252979 0.009837 6.089217 0.011348 6.278361 0.009563 6.136811 0.010840 6.302751 0.009386 38
5.542201 0.015363 5.722858 0.013135 5.695839 0.013927 5.907539 0.011578 5.740176 0.013195 5.928251 0.011261 5.782693 0.012649 5.944474 0.010980 38
4.956050 0.027160 5.112822 0.024295 5.110644 0.024903 5.303218 0.021408 5.148347 0.023735 5.327215 0.020860 5.174745 0.023396 5.333649 0.020873 38
5.266327 0.021981 5.424072 0.019409 5.403307 0.020441 5.585600 0.017513 5.440883 0.019411 5.599799 0.017217 5.474752 0.018974 5.618196 0.016957 38
4.803360 0.031206 4.942629 0.027722 4.976638 0.028393 5.155829 0.024598 4.997034 0.027513 5.148161 0.024194 5.030405 0.026613 5.161772 0.024005 38
7.175166 0.001498 7.603975 0.000939 7.250729 0.001363 7.677878 0.000853 7.470740 0.001097 7.850617 0.000720 7.433684 0.001119 7.804554 0.000745 39
7.169753 0.001582 7.598226 0.000994 7.196879 0.001518 7.616969 0.000943 7.458047 0.001137 7.834455 0.000743 7.359819 0.001288 7.726439 0.000838 39
7.233584 0.001557 7.656107 0.000995 7.325267 0.001391 7.759842 0.000879 7.525746 0.001149 7.905518 0.000757 7.500168 0.001165 7.872987 0.000775 39
7.209184 0.001489 7.649001 0.000923 7.253343 0.001399 7.694971 0.000863 7.502924 0.001068 7.907485 0.000692 7.432196 0.001151 7.820780 0.000751 39
7.221937 0.001394 7.670505 0.000860 7.299859 0.001261 7.739899 0.000785 7.542330 0.000981 7.935001 0.000641 7.457943 0.001079 7.855024 0.000703 39
7.184951 0.001561 7.616672 0.000970 7.219157 0.001470 7.640755 0.000925 7.472868 0.001117 7.851806 0.000727 7.392975 0.001247 7.764704 0.000802 39
7.035599 0.002208 7.469973 0.001375 7.097022 0.002046 7.529646 0.001269 7.332652 0.001575 7.710038 0.001033 7.256709 0.001751 7.641438 0.001149 39
7.226700 0.001415 7.659636 0.000896 7.267472 0.001336 7.700473 0.000847 7.508475 0.001045 7.897183 0.000688 7.452926 0.001099 7.839973 0.000726 39
7.169685 0.001605 7.591417 0.001012 7.207046 0.001512 7.627220 0.000959 7.433638 0.001202 7.817550 0.000779 7.385762 0.001237 7.763334 0.000827 39
7.095326 0.001808 7.520707 0.001138 7.146781 0.001709 7.585738 0.001049 7.351966 0.001387 7.743259 0.000890 7.333038 0.001400 7.715861 0.000928 39
6.916896 0.003733 7.306940 0.002711 6.863790 0.003808 7.259226 0.002797 7.124090 0.003111 7.482182 0.002240 7.062390 0.003327 7.420050 0.002478 40
6.957957 0.002809 7.353691 0.001957 6.948751 0.002860 7.342631 0.001994 7.189220 0.002307 7.557409 0.001616 7.150798 0.002305 7.520677 0.001578 40
6.880048 0.003319 7.279760 0.002335 6.924661 0.003199 7.341151 0.002225 7.106450 0.002743 7.476584 0.001967 7.124195 0.002720 7.494234 0.001940 40
7.052231 0.002155 7.460671 0.001515 7.041342 0.002176 7.457266 0.001511 7.307266 0.001709 7.688636 0.001235 7.244568 0.001782 7.631190 0.001279 40
6.990248 0.002461 7.390946 0.001725 7.091854 0.002256 7.509818 0.001550 7.264704 0.001929 7.637800 0.001364 7.265682 0.001876 7.646153 0.001349 40
6.942371 0.002854 7.336921 0.002028 6.952991 0.002859 7.342583 0.002042 7.181064 0.002352 7.543532 0.001678 7.163370 0.002330 7.528265 0.001650 40
6.960138 0.002840 7.369284 0.001968 6.963022 0.002884 7.378503 0.002022 7.188667 0.002346 7.557904 0.001686 7.186848 0.002323 7.567581 0.001637 40
6.928899 0.003788 7.337182 0.002786 6.949279 0.003859 7.360368 0.002878 7.129196 0.003280 7.500730 0.002512 7.186608 0.003189 7.554410 0.002384 40
6.793007 0.004976 7.193562 0.003789 6.813883 0.004936 7.217085 0.003775 6.965549 0.004400 7.336282 0.003460 7.045873 0.004148 7.412235 0.003140 40
7.071959 0.002143 7.501725 0.001415 7.118610 0.002087 7.544597 0.001395 7.287692 0.001729 7.666970 0.001188 7.339835 0.001674 7.719490 0.001121 40